//Numpy array shape [32, 5]
//Min -1.007387638092
//Max 0.848086714745
//Number of zeros 0

#ifndef W11_H_
#define W11_H_

#ifndef __SYNTHESIS__
model_default_t w11[160];
#else
model_default_t w11[160] = {-0.0870765969, -0.0614232831, 0.2779353261, -0.0250769593, -0.3814216256, -0.2891661823, -0.1303437501, 0.4521137774, 0.1077946573, -0.0277043786, -0.5119230151, -0.3358242810, -0.0698523894, 0.7070015669, -0.3958724737, 0.2597427070, -0.2518487871, -0.2312152237, -0.3249727190, -0.1606775969, 0.1665833443, 0.2842389047, 0.1718030721, -0.1079726666, -0.1027053148, -0.1492061764, -0.1477489769, 0.4337714612, 0.5499592423, -0.2712740600, -0.2509920001, -0.0564367548, -0.3484874964, 0.1922536790, -0.1697995216, 0.4966370761, -0.1957817376, -0.3770840168, -0.2634202838, 0.0447281674, 0.0877747685, 0.3498407006, -0.2376407534, -0.0828463659, 0.2334193736, 0.2260494679, 0.0040662913, 0.1639203578, -0.5713012815, 0.3885293603, 0.3662888408, -0.2555311620, -0.1056344658, 0.4151722491, -0.0988557637, 0.1332063079, 0.0909462348, -0.2988812625, -0.1577240080, 0.0303515550, -0.4003689289, -0.4309355915, -0.4259364903, -0.2410936952, 0.3528363109, 0.4320263565, -0.1665521264, -0.2281574905, -0.1917556226, -0.1971922070, 0.1581646651, 0.1003974974, -0.6249411106, 0.3519867361, 0.2867344022, 0.0123922778, -0.3050670922, -0.2965855002, 0.6227815747, -0.1086723432, 0.2022764385, 0.0941131711, -0.0820364803, -0.1961255223, -0.2917268276, -0.0011393341, -0.2206663191, 0.4168747962, 0.0156074651, -0.1870239973, -0.0063252929, 0.2977989316, 0.1807666719, -0.1664554775, -0.0900293365, -0.5127385855, 0.3296271265, -0.0520671867, -0.1374695599, -0.0481384359, 0.1452366561, 0.0274647120, -0.6345630288, -1.0073876381, 0.8480867147, -0.1716006696, -0.2087413371, 0.2338979542, 0.6578546166, -0.4176785946, 0.0825960860, -0.1324062347, 0.4803709686, -0.0924037844, -0.4736602008, -0.0007037350, 0.0001771298, 0.0239035934, 0.1186462939, -0.2363106757, -0.3267599940, -0.2315407842, 0.0351698957, 0.4721706212, 0.5570566058, -0.3444815874, 0.0061949301, -0.3510347605, 0.3841535151, 0.0884139836, -0.2756899297, -0.4252178371, -0.2253351510, 0.3544034660, 0.3683366776, -0.3262469172, -0.4828238785, -0.0426658280, 0.0399852544, -0.0212210771, 0.0005131823, -0.2475344241, 0.0264491662, -0.3651207685, -0.0561243929, -0.3788481355, -0.2488675863, 0.3489180207, 0.0464353450, 0.2147564441, 0.2880325615, -0.0128295543, -0.2831447721, -0.8201790452, 0.5829722881, -0.3509767652, -0.2883301675, 0.2762451172, -0.3998532593, 0.6168348193};
#endif

#endif
