//Numpy array shape [16, 64]
//Min -1.074356794357
//Max 0.843382894993
//Number of zeros 0

#ifndef W2_H_
#define W2_H_

#ifndef __SYNTHESIS__
model_default_t w2[1024];
#else
model_default_t w2[1024] = {-0.0811433792, -0.2818958461, 0.0453799404, 0.0272437613, -0.0202760119, 0.3241267800, 0.1595218331, 0.4385645688, 0.1324599534, -0.2940839231, 0.2380874604, 0.1362025142, 0.0112779960, -0.0209588353, -0.0211101323, 0.1700409502, 0.2774494886, 0.1951523274, 0.5054231286, -0.4211149514, -0.2601074278, -0.3547470570, 0.1084562764, 0.1706426144, 0.0463200547, -0.0610198714, 0.1151871681, -0.3814165592, -0.4213121533, 0.0895896628, -0.3254285157, -0.1065159068, -0.1287760586, -0.3429886401, -0.2385136932, 0.0212425254, -0.0179499015, 0.1954265982, 0.4068882465, -0.2207328528, -0.3243013620, 0.1283692271, -0.2265497595, -0.0394468978, 0.3282107711, -0.1509389877, -0.4729134738, -0.0109828738, 0.0000997043, 0.1454696953, 0.1348567456, -0.3686859608, 0.2884626091, -0.1955607533, 0.1722915620, -0.1555618495, -0.3712847531, -0.0650949776, -0.3422458768, -0.4266348779, 0.3534913957, 0.4317615926, -0.0003327500, 0.0063187005, 0.0171699077, 0.2383932322, 0.3020647466, -0.0489574596, -0.2184002995, 0.1911758333, 0.0175106749, 0.1113330051, 0.2208116204, 0.2581549287, -0.3229021132, -0.2030448914, -0.1600838751, -0.2431439757, 0.3310916424, -0.2649510205, 0.0717915669, 0.4159403145, 0.3853076398, 0.2817569971, 0.0457254425, -0.3103989065, 0.1529016644, -0.1934732050, 0.1372232288, -0.3117553890, 0.2660857141, 0.0069667487, -0.3048016131, 0.0911621749, 0.2929793298, 0.0799828172, 0.1058484316, 0.0000729072, 0.0418883376, -0.2834778428, 0.1954049319, 0.2089772671, -0.3997870982, 0.4510909319, -0.0384942181, 0.0029568612, -0.2803474665, 0.2860140502, 0.2626159787, -0.0098142307, -0.3446768522, -0.0010833711, -0.0756716430, -0.0117407236, 0.0005351050, -0.2378399968, 0.4021266401, -0.1000893936, 0.0165538900, 0.3763473928, -0.2254421711, -0.0548629910, -0.1085946336, 0.3194760680, -0.1841373444, 0.3483176231, 0.1849181652, 0.1616706401, 0.1371735334, -0.0157385916, -0.1862505674, 0.6035795808, 0.1672268957, -0.0414075367, 0.0614720210, -0.3016516864, 0.0154168541, -0.0001961084, -0.1030470431, -0.0027444295, -0.0050300406, 0.0005654784, 0.5838142633, -0.4221830070, -0.0241668504, -0.2242631316, -0.1937027127, -0.3238480985, -0.1572058201, 0.0010392166, -0.1915327311, 0.0057745725, -0.2065612078, -0.2692826986, -0.1336509734, 0.4450121522, -0.7028450966, -0.2126003802, 0.0303124078, 0.1690992415, -0.0710359588, -0.3056789637, -0.3593158126, -0.1052066609, 0.0753514096, 0.4417829812, 0.1254487038, 0.0027267479, 0.3923173249, 0.1127092689, 0.1650264114, 0.0036855461, -0.1108553708, 0.0112513155, -0.3620041609, 0.2679213583, -0.0709409714, 0.4116188586, 0.1234875321, 0.3110554218, 0.0364623256, 0.2203345299, -0.5703315735, 0.0461180173, 0.1268833876, 0.2488227636, 0.0922679231, 0.2559857965, 0.1383923888, -0.2877194881, 0.5569893122, 0.1680114120, -0.2117916495, -0.0320223272, -0.0170910861, -0.0322071090, 0.4132612348, 0.0448917076, -0.5858543515, -0.2471461594, -0.0151473153, -0.1886319220, -0.0005003436, -0.6330635548, -0.3835656941, 0.1350385398, -0.2947162986, -0.0348854214, 0.0368727967, -0.6686426997, -0.3848032951, -0.0598684512, -0.4989911020, -0.2208201587, -0.0037786583, -0.3554281294, 0.4887960553, -0.1140239909, -0.0415241942, 0.5487166047, -0.2662495673, 0.4970766008, -0.5438678265, -0.0002994426, 0.3352737427, -0.5806779265, 0.2512506545, -0.6298194528, 0.2406428903, 0.3882227242, 0.2071589082, -0.1794387847, 0.2142956555, 0.3419029415, -0.0701309070, 0.0379406102, -0.5487107635, 0.3767360747, -0.1599715352, 0.0643227473, -0.1175950915, 0.4056194723, 0.3469325006, -0.1500943154, 0.1187032387, -0.3534871340, -0.0393016376, 0.1566760838, 0.0319867730, 0.6953133345, -0.4806688726, 0.3433943689, 0.2864350677, -0.0090176938, 0.1647942066, -0.0547031686, 0.4316287041, 0.2005474269, 0.3314534128, 0.5437284708, 0.2898008227, -0.1883283854, -0.4185789227, -0.0109662628, 0.0317141227, 0.3579566479, -0.1901888698, 0.2317296714, -0.2536112368, -0.0268470775, 0.3752679825, -0.1479809284, -0.1056751087, -0.3202809989, -0.3648826778, 0.0766375512, 0.0455517471, 0.2055678070, 0.1489790380, 0.5384385586, -0.0654870868, -0.1641867012, -0.4850711524, -0.1605061591, -0.5581466556, -0.3437853754, -0.1998104453, -0.1788935661, 0.0757882148, -0.2910195291, -0.0408185869, -0.3025823832, 0.0177899413, 0.1742161959, 0.2168860734, 0.2423259765, 0.0032287252, -0.1902835667, 0.4706285000, 0.1182620898, 0.0636389628, 0.4327206612, -0.4403342009, -0.3718819916, -0.3008517921, 0.0323964544, 0.2095007300, 0.0513027385, 0.0806526095, 0.0965362042, -0.4871443510, 0.3020387590, -0.0012191256, 0.0170177538, -0.3464092612, 0.2164328247, 0.4682753980, -0.0746330693, 0.2997419536, 0.4814377427, -0.2857216597, -0.4707031846, 0.0597797632, 0.3903781176, 0.0128285186, -0.2668001652, -0.3784190416, 0.0784475505, -0.3740917444, -0.0561629198, -0.3550753593, -0.3111239374, -0.4029494822, 0.0005619410, 0.2073294073, 0.1323533207, 0.1148765385, -0.0462063365, 0.1473099291, 0.1049086899, -0.2125295252, 0.1145521700, -0.1625118107, 0.2818813026, 0.1571455002, -0.3991663158, -0.2593285441, 0.2578631043, -0.0093300827, 0.1239068061, -0.1599224955, -0.0267625358, -0.1071410030, -0.1363543272, -0.3521723747, -0.0732162818, -0.0000829997, 0.3947658241, -0.1491696239, 0.2444288731, 0.0433291718, -0.0514509827, 0.2940755785, 0.2772068679, -0.1743420660, 0.1495580077, 0.3090550303, -0.2418753803, -0.2915249467, 0.1623200327, 0.1874283254, 0.3369002342, -0.0516992472, -0.3300985992, -0.2151870281, -0.2509096861, 0.2640817761, -0.1765637845, -0.4483222365, 0.3642359674, 0.1739207357, -0.2498182654, 0.0858275965, -0.3225835264, 0.3593657613, -0.0769757256, -0.3948732913, -0.0890642628, 0.3206416070, 0.1850962490, -0.3134232461, 0.1381429434, -0.1162012964, -0.3270113468, 0.0001417962, 0.1518470198, -0.0326630324, -0.0004280611, 0.1950981766, -0.1337925792, 0.2412263751, 0.0147232423, 0.2316893339, 0.3358228803, -0.2115537822, -0.3187938333, -0.1871637553, 0.2281370163, 0.1281929314, 0.2496174574, -0.4129162729, -0.3275131583, -0.3541410863, -0.0450929254, -0.0762297586, 0.3804770410, -0.0000119708, -0.2612336576, 0.1032099798, -0.0894955322, 0.2523964345, 0.1281373799, -0.1095591486, -0.0134243509, -0.0258534960, 0.0529781692, -0.2758903801, -0.1088015288, -0.1510114819, -0.1193960831, 0.2593244314, 0.2466517687, -0.1219092086, 0.0001575513, 0.0459930673, -0.1803963035, -0.2421063036, 0.2663492858, -0.0629417896, -0.3966895044, -0.0547337458, -0.1200414449, 0.0092484243, 0.2710171342, 0.0765297487, 0.0406052917, -0.1951391250, 0.1985079199, -0.1869921982, 0.1667340845, 0.0992248803, -0.0419574343, -0.0541131273, -0.3752623796, 0.3978777230, 0.1337235421, -0.0336085223, -0.2118880600, -0.0000798721, -0.2320760489, -0.1780067533, 0.1793039441, -0.3372818828, 0.3650678694, -0.0169743802, 0.0619509742, -0.2851418853, 0.2141538262, -0.0090013267, -0.2285893410, 0.4096867144, -0.2329463959, 0.2898380458, -0.3344301581, -0.3804838657, 0.2053487003, 0.0953881145, 0.1239756346, 0.3425772786, 0.0104361158, 0.0690358505, -0.0163927432, 0.0001299858, 0.2697696388, -0.0401347093, -0.3723743558, -0.0959979296, -0.1088200435, 0.3159053922, -0.1372166127, 0.3407138288, -0.3073001206, -0.3198756874, -0.1204655245, 0.1996092200, 0.1448412985, -0.3479870260, -0.2097822279, 0.2140873373, -0.2883336842, -0.3721931875, 0.1018237695, 0.0131231798, 0.1866247654, 0.1027506292, -0.2485397011, -0.0796467215, -0.0108997421, -0.0903919712, -0.0518349074, -0.0005002112, -0.3478908837, 0.3565285206, 0.0024086926, -0.4659470618, -0.2100147456, 0.2172929943, -0.0995884314, 0.4518328905, 0.2098325938, -0.1754187047, 0.0619926192, -0.2562865615, -0.0052967803, 0.2734833062, 0.3444277346, 0.1044933870, 0.0663058683, 0.0013036521, -0.2255278230, -0.0477743670, -0.3512383103, 0.0202578884, 0.3858558834, 0.1704288274, -0.3373985887, -0.2875760198, -0.0495614707, 0.2011174262, -0.2675949931, -0.0697194189, 0.2163081765, 0.2193631828, -0.1781034917, -0.2097831070, 0.0827054530, 0.1268353015, 0.0000550336, -0.0073633878, -0.1626699120, 0.0040591876, -0.3437272906, -0.2622474432, 0.3969615698, -0.3320322931, 0.1117795035, 0.2022893727, -0.0003487278, 0.0285800863, 0.1820208430, -0.2401486337, -0.0024945317, 0.2246992886, -0.1060094684, -0.3160786927, -0.1586844921, 0.1133818850, 0.2080029547, -0.0357232429, 0.3177068233, -0.2216850072, 0.2729167938, -0.3013010025, -0.2275221050, 0.0188419912, -0.2732610404, 0.2251630872, 0.1575086415, -0.2659867108, 0.1732759327, -0.0059326496, 0.3619806767, -0.1483080983, 0.3854047060, -0.0772132277, -0.1299251914, -0.0002009013, -0.2356635332, 0.4311046004, -0.2717096806, -0.1970374137, -0.1100393087, 0.0084019480, 0.1953727901, 0.1032508016, 0.2905741036, 0.0866043791, 0.3364751637, -0.3494706750, 0.2186407149, -0.1836487800, -0.2345826626, 0.0134448046, -0.4060167968, 0.2543695271, -0.1815713495, -0.2857301831, -0.2224323750, -0.3870103955, -0.2243390083, 0.0006709956, -0.3205267191, 0.2771579921, 0.1359253228, 0.1596803814, 0.2570424974, 0.2784712315, -0.0116078155, 0.2799112499, -0.0004740611, 0.1967272013, -0.2655349374, 0.3493850231, 0.4369409382, 0.1136036217, 0.0315281004, 0.2111461312, -0.3595571816, -0.3584087491, 0.0536502488, -0.0572224259, 0.1313435435, -0.3564478159, 0.3757935166, -0.2724116743, -0.0014457810, -0.3423527777, 0.3050887585, -0.3119756281, 0.1186131835, -0.3085362017, -0.1495636255, 0.3158821762, -0.1754315645, -0.2832643688, 0.0487512462, 0.4470619857, -0.0935328156, -0.1869872659, -0.0404090732, 0.2039756924, -0.2707656324, 0.4179231524, -0.0595417023, -0.0383438542, -0.2758589089, -0.0002174477, -0.0071893185, 0.0282601938, 0.1375155002, 0.3768872917, -0.3977329731, -0.3840796649, 0.2764141858, -0.0940049961, 0.0326011926, -0.2228682637, -0.3174026012, -0.2372199148, 0.3496928811, -0.1991862953, -0.0692399070, 0.1440527588, -0.0633136034, 0.2580725551, -0.1088537425, 0.1199452430, -0.2739720345, 0.3977216780, 0.0001296199, -0.2723453045, -0.3193739653, -0.0433191918, -0.3494970500, -0.2905576527, 0.0002912006, -0.2562576234, 0.0916837156, 0.0246580802, -0.2225737125, 0.2674692273, 0.0031717585, 0.2062290311, 0.1412384510, 0.0287174266, 0.0611954853, -0.1587273329, 0.0648849681, -0.2769435048, 0.3327031136, -0.3656681180, 0.0882481411, -0.2733875811, 0.2571270764, -0.3205057383, 0.1913685650, 0.0758894011, -0.1143774241, 0.2946923375, -0.1173366904, -0.3315808773, -0.1034204140, 0.0872265697, -0.3293729424, 0.1291102767, -0.2207074910, 0.2903907001, 0.0775203034, -0.0273049232, -0.0272310339, 0.2489277571, -0.2664403021, 0.1535131931, -0.0310645774, -0.0871682242, 0.0001894482, -0.2188059539, -0.2514881194, -0.3568880856, 0.3666113317, -0.3346729577, -0.3253900111, 0.0265501831, -0.3160470426, 0.0312264487, 0.0096968748, -0.3798040748, -0.5192912817, -0.1152403280, 0.3402345777, -0.0695192814, -0.3427099288, -0.3416680992, -0.2708586156, 0.1362429857, -0.1980182678, -0.0482230186, -0.3394542634, -0.1048212647, 0.0379023403, 0.2513557374, -0.0126865152, -0.2635571659, 0.0951616168, 0.0001709141, -0.2058604807, -0.4257034957, -0.0027227565, -0.0830665529, -0.0502698980, 0.1577310413, -0.2835969031, -0.1204821169, 0.0777033642, -0.0196424425, 0.1652616858, 0.0137596522, 0.3889044225, 0.3361119926, -0.2158945203, 0.1502938569, 0.0542416461, 0.1462772936, 0.0624830984, -0.2743394375, 0.2774244845, -0.3401859999, -0.1900457293, 0.1674047858, -0.2445646822, 0.4231792390, 0.1456325948, -0.0486354455, -0.0213450119, 0.2507959306, -0.2059275508, 0.2209790349, -0.1482134759, -0.0972276777, 0.1751967669, -0.3291286230, -0.2193478942, -0.1011950150, -0.2033765912, -0.3376403749, -0.0014685668, -0.2272360176, -0.1294551641, -0.0039219051, 0.0210108757, -0.2467012405, -0.2782198489, 0.2963933647, 0.1571846604, -0.0601948313, 0.1419278681, -0.1341142058, 0.0006845368, -0.3051269352, 0.0010342520, 0.1809042841, -0.0768501833, 0.2266871184, -0.1793344915, 0.0354699418, 0.2611930370, -0.3931913376, 0.0127486587, 0.0440169722, -0.2711111903, -0.3245250583, -0.2745671272, 0.2404853106, 0.1293526292, -0.1932836175, -0.4354083836, 0.3378869891, -0.0002091316, -0.2719422281, 0.0009787243, 0.1010094434, -0.4115931988, -0.1233642399, -0.0054988149, -0.1860619336, -0.0622838885, 0.0975984558, 0.1076432616, -0.0665102303, -0.2884724140, -0.0424051471, 0.1935510933, 0.0503049530, 0.2110669166, 0.0003391369, -0.0001040932, -0.1448947936, -0.1486450583, 0.0008944992, 0.0001213679, -0.0670514628, 0.2782471180, -0.2611688375, 0.2865591645, 0.0128891878, 0.1122511253, 0.1292621791, -0.1294710040, 0.0361242592, 0.1849917620, 0.0430581793, -0.1511096209, 0.0594641343, 0.1610855311, 0.0403557755, -0.3601585627, 0.2515438199, -0.3370319605, -0.0026500057, 0.1876080632, 0.4225489795, 0.0589219667, -0.0092998883, -0.0058690798, -0.2134676725, -0.0001102305, 0.0431191139, -0.3012275100, -0.1096290052, -0.0116083333, 0.1101643518, -0.0000021523, -0.0525411554, 0.3465880156, 0.1802397668, 0.0588299148, -0.2176282108, -0.0182432011, -0.3659261763, 0.3638564646, 0.2782117128, 0.3413197398, -0.1565118283, 0.0001521909, -0.0058351965, 0.1308338195, 0.2999227941, 0.5798593163, 0.5572168231, -0.4334563911, -0.3325432539, -0.8201507330, -0.7578984499, -0.3840925694, -0.8719336987, 0.3505084217, -0.0000339268, 0.4582214057, 0.2210649699, 0.0201130696, 0.1547622681, -0.0125847021, 0.5714232922, 0.5466760397, 0.3367598057, 0.2447275072, -0.5536225438, -0.2243942469, -0.4982006848, 0.5295834541, 0.8433828950, -0.3109838665, 0.1674805284, -0.0000695984, -0.3005262911, 0.3019514978, -0.1413064599, -0.2224069983, -0.7541847229, -0.2732589245, 0.1638645232, -0.3017107248, -0.4003596306, 0.6727043390, -0.1969969571, -0.2468345314, -0.5102398992, 0.0041268207, 0.2140620798, 0.0001059067, -0.6528774500, -0.0259505827, 0.1914073527, -0.0064118099, 0.7600111961, 0.4729205668, 0.0295444559, 0.2518100441, -0.3649373353, -1.0743567944, 0.0085222535, -0.4401921332, 0.1479006410, 0.7260423303, -0.1929344237, -0.3010109067, -0.5280943513, -0.1383703351, -0.0124811223, 0.0727333799, -0.1614574343, -0.0004837232, 0.0622083992, -0.1324632615, -0.0510476343, 0.0313488804, 0.3554343879, -0.3063058257, -0.3530652225, -0.3489456177, -0.1818659902, -0.3577025831, 0.2049115002, 0.0011151065, -0.1826921254, -0.2832557261, -0.0378957391, 0.2639724612, 0.0624036118, 0.2740385830, -0.1317243576, -0.0046687531, 0.5036311746, 0.0611193776, 0.2505137324, -0.0382569991, 0.2771492004, 0.4027417898, 0.1920460463, 0.3607707918, -0.3824026287, -0.0170661006, 0.0037869739, -0.0008120885, -0.5110079050, -0.1684830338, 0.2098450810, 0.3639717102, 0.5559153557, 0.0107036401, 0.4768290520, -0.0830713660, -0.0798966438, 0.1372314394, 0.0365979746, 0.2402345389, 0.3346232176, -0.2465351522, -0.2307874709, -0.2870198190, -0.3574385643, 0.2788605988, 0.1198138371, -0.3060607910, 0.3712024093, 0.0012321332, -0.2357799560, -0.0103042219, 0.2217405587, 0.1359622627, -0.0148784779, -0.3795609772, 0.0028088414, 0.0234081168};
#endif

#endif
