//Numpy array shape [32, 32]
//Min -0.945075511932
//Max 0.517684340477
//Number of zeros 0

#ifndef W8_H_
#define W8_H_

#ifndef __SYNTHESIS__
model_default_t w8[1024];
#else
model_default_t w8[1024] = {0.0041963770, 0.0019399818, 0.1414387077, -0.0000001430, -0.0000081571, 0.0015071958, 0.1829668730, -0.1389427632, -0.1970141977, 0.3037851453, 0.0009702162, 0.0000618786, 0.2664559186, -0.3134998679, -0.0130469194, 0.0667532608, -0.0000572503, 0.0275491644, 0.2627518177, 0.0018792868, 0.4588918686, 0.0093806181, -0.0000900132, 0.0190755948, 0.0001834080, 0.0040408941, 0.3904816210, 0.2769150138, -0.2961378098, -0.0019571788, 0.1922045797, 0.3370325565, 0.2591041625, -0.0278374106, -0.0572384186, 0.3111203313, 0.1825289130, -0.0582961403, 0.1015491858, 0.2760923207, 0.2613628805, -0.5693634748, -0.0927954167, -0.0002326032, -0.0415752679, 0.0531032458, 0.0121805053, 0.0147197917, 0.2106958330, 0.1493786573, 0.1369874328, 0.1542239338, -0.0872463286, -0.3108711839, 0.0005917943, 0.0003768707, -0.1584098935, -0.2829963267, -0.4205700755, -0.0000968507, -0.1668938249, -0.1720203608, -0.2427873611, -0.4465269744, 0.0641930625, -0.2614362240, -0.4638253152, 0.1566025764, 0.0861109868, -0.0000003063, -0.3044966459, 0.3357090652, 0.0410222858, -0.0000867111, 0.3148778677, -0.0256755352, -0.3909573853, 0.2025940418, -0.3089040816, -0.1120685488, 0.4708833694, 0.2840124071, 0.2889367342, -0.3740363121, -0.1572528929, -0.0245367903, -0.0645245835, 0.0097935349, -0.3640879989, -0.4788104296, -0.3666159809, -0.0000435886, 0.2100768834, -0.0195100792, -0.0086011896, -0.0147862034, -0.4032800198, 0.0118314801, 0.2310097516, -0.1852626354, 0.0171466060, 0.2085637450, 0.0071815909, 0.2868099511, 0.1272235364, 0.0249369163, 0.2143869698, 0.0071172593, 0.0005606833, -0.0656701028, -0.0001690492, 0.2314077616, 0.0588327311, -0.4266595244, 0.1074822769, 0.3258578777, 0.3006624877, 0.3663298488, 0.0047160932, 0.0004152609, 0.4302370250, 0.4135973752, 0.4250438511, 0.0792253092, -0.2258078158, 0.0511536412, 0.0932811424, -0.0009018389, 0.0165910758, -0.0262003131, 0.0861609727, 0.0614993684, -0.0088385930, 0.0026220775, 0.0945758969, 0.3993523419, -0.0947791040, 0.1903905421, 0.3506643176, 0.0184612572, -0.0724088326, 0.2349890769, 0.3253467381, 0.0865175202, 0.0971266404, 0.0713275447, -0.2635976672, -0.1785603911, 0.2005310953, 0.1215498820, -0.1127057225, 0.0053778077, 0.2153629512, 0.2307749987, 0.1680421531, -0.0001568258, 0.1620342731, -0.0272968598, 0.1666840464, 0.1980669349, -0.1022487432, -0.0257823169, -0.5110895038, -0.2299781889, 0.1412936598, -0.2274640799, 0.0158249922, -0.0486812554, 0.4029490650, -0.0000636418, -0.1821582466, 0.0001247865, -0.0000027979, 0.1824420840, 0.2425912917, 0.0006260368, 0.3254368007, -0.3190389574, 0.3809321523, -0.1186679974, -0.0585507676, -0.3647403419, 0.0461085103, 0.0001624679, 0.0002263434, 0.2217788249, -0.0160271060, 0.0000333060, -0.2635898292, -0.1240059361, -0.0001060778, -0.1804067641, 0.0230141953, 0.2348380834, 0.1410040557, 0.0832093209, 0.0005226569, -0.0052252202, 0.0857773349, 0.0375063941, 0.0001978291, -0.2995016277, 0.0010457394, -0.2480443269, -0.6152181625, 0.1031434461, -0.1988403499, -0.0030813015, -0.0115595050, 0.0307322741, 0.1328988075, 0.2119498551, -0.7546258569, 0.0036808522, 0.1174301207, 0.0001292079, -0.1327785403, -0.2641621232, 0.0658076629, -0.0000979963, -0.2384813279, 0.0634562671, -0.6820449233, -0.3845430315, 0.2526420951, -0.0256186295, -0.7164185047, -0.0002119324, 0.1746093929, -0.2404928207, 0.0000251526, 0.0561457537, -0.3317832649, -0.1244528368, -0.6395311356, 0.0005538238, 0.0527435914, -0.2705999911, -0.0426542982, -0.7849950194, -0.0727090165, 0.0672520846, 0.2447502762, -0.1267241836, -0.0784432516, -0.5249419808, 0.0870266184, -0.0003092632, -0.0129674030, -0.3943568170, -0.0098935235, -0.1461239606, 0.0976392701, -0.0516570061, 0.1123948768, 0.3510971069, 0.0158357266, -0.1150183976, -0.1892020702, 0.2899809778, -0.0002800024, -0.1634893417, 0.1370441169, 0.2431259006, -0.0491231903, -0.3346150219, 0.1403693706, -0.0004777840, -0.2674714923, 0.0251935571, 0.3250952661, 0.0262049064, -0.1189536899, -0.1509105712, 0.1584843695, 0.0339621156, 0.0502765663, -0.3109775484, -0.2990958989, 0.0081954869, -0.2459283173, 0.3665181696, 0.0718982667, -0.2248567492, 0.0132167814, -0.3343056738, 0.0288341679, -0.1327635050, 0.2750719488, -0.0508145653, -0.6487804055, -0.0000508786, 0.2491874248, -0.1273176521, -0.2794282138, -0.2623792887, -0.1480059326, -0.0334768184, -0.3752949238, 0.0342290550, 0.0119216284, -0.0129320808, -0.3196580112, -0.7112745047, 0.1759538651, 0.3022939861, 0.0869812444, -0.2076287419, 0.0726996064, -0.1611881256, 0.0077725402, -0.0000133808, -0.2692583501, -0.3454060256, -0.3147298694, 0.2584365308, 0.3633279800, -0.0649220347, 0.1286073178, 0.0656478256, -0.0586923175, 0.2018308192, 0.2769636512, 0.1109618992, 0.4962946475, 0.2577762902, 0.0003501026, -0.0299762562, 0.1697761565, 0.1086092740, 0.1455807686, 0.0907312334, 0.0163991228, 0.1171850935, -0.0217751171, -0.0241376739, 0.4416961372, -0.3208373487, 0.1620977074, 0.0868576318, -0.0658670366, 0.2243123502, 0.0927020684, 0.0000839899, 0.3089674413, 0.1169088334, -0.0003291120, -0.2943713069, 0.0282339472, 0.0252555143, 0.0728265122, -0.1516715437, -0.0507913381, 0.0195241217, 0.2747911513, -0.0004315655, 0.0001480787, 0.0222748499, -0.0152248181, -0.0830422714, -0.5359708071, -0.0881687254, 0.1648989320, -0.0004760756, 0.1561833322, -0.2124218494, 0.1577257365, -0.0019643451, -0.0000159392, 0.2066818327, 0.0039080037, 0.2736878395, 0.0090671070, -0.0605750047, -0.0000215835, 0.1331358552, -0.0118527366, 0.1476839483, 0.2006314248, 0.2521114647, 0.2250917256, -0.0317129903, 0.2939010262, 0.3295869231, -0.0012618564, 0.0467713103, -0.0044364384, -0.0008006998, -0.2011818886, 0.0000264236, 0.2531818449, -0.2079174668, 0.0046120868, -0.2390808761, 0.2021167576, 0.0001754455, -0.1429286003, -0.0192438923, 0.1152601838, -0.0704390854, 0.1381942183, -0.0879373699, 0.0902136415, 0.0263385214, -0.6395702362, 0.0587502718, 0.0648428276, 0.0001820668, -0.0291437339, 0.1833981872, 0.0195643939, -0.2980549335, -0.1179425940, -0.1769017279, -0.1400122494, -0.3815895319, -0.2340999693, 0.0581908561, 0.0001500986, -0.0197220761, -0.1336042136, 0.2520041764, 0.1168085411, -0.0374277569, 0.2346301526, -0.0777590722, 0.0744703561, -0.0009189600, 0.1865626425, -0.1294425428, 0.2837475836, 0.1039236933, -0.1533289850, -0.2202953398, -0.2912992835, -0.0786972344, 0.1292111725, 0.2005633265, 0.1272295564, -0.0909551382, 0.3325012028, 0.3289535046, 0.0005930869, 0.2468292415, 0.1875984073, 0.0010366968, 0.2882176936, 0.1589290202, 0.1433809549, -0.5106968880, -0.8900358677, -0.1108202189, -0.0304166973, -0.6468403935, 0.1526700705, -0.0037464767, -0.0957409814, 0.0704123005, -0.3038700223, 0.0294169486, 0.0419370495, 0.2501997054, 0.2382986844, -0.2184974402, 0.2080927342, -0.3075292110, 0.1802037656, 0.3339560330, 0.4991416633, -0.7585022449, -0.3920046389, 0.0073539815, -0.2434628755, -0.2927368581, -0.2698181272, 0.0833183154, 0.3359488547, -0.2943504155, -0.0035759523, 0.3805676103, 0.3721039891, 0.4049001336, 0.0846564397, -0.0247917939, 0.3411568999, 0.1012732908, -0.0487152115, -0.4706573784, -0.0823020935, 0.2919711471, -0.0571265668, -0.0591977648, -0.0261111986, -0.0672019646, -0.0379446410, -0.0879964754, -0.1494707316, 0.2701394260, 0.2876494229, 0.2991083264, -0.0979014188, 0.1245832220, 0.0469342060, 0.0355701074, 0.1306281984, -0.1450710893, -0.1218785271, -0.0001398003, 0.2886145413, 0.3635754287, -0.2761583328, 0.2058763653, -0.1093158498, 0.1431593895, -0.0622691847, 0.3028440177, 0.0004618102, -0.0795938000, 0.0680438131, 0.3820799589, 0.0524295755, -0.3865916729, 0.2126565725, 0.0368000045, -0.1367194504, 0.0138586573, 0.4199834168, 0.0006002897, -0.0823487565, -0.2306086123, 0.2350047678, 0.0342649072, -0.0854369178, -0.0287242066, -0.0829462335, 0.0001992357, -0.1426855773, -0.2569590807, 0.1288755685, -0.3533253372, 0.2264630944, 0.1208303794, 0.1473364234, -0.4922608435, -0.0720736533, -0.0313196741, 0.0602488741, -0.0832143575, -0.1614022106, -0.0001521133, 0.0555131584, 0.1940128207, 0.0234512221, -0.1218459532, 0.2950522602, -0.0125980210, -0.0001497746, 0.0916291997, 0.3278622329, 0.0001531375, -0.0642387569, 0.2703148127, -0.4014874101, -0.2239146829, -0.0000511816, -0.0000661842, -0.0350204520, -0.0000569276, -0.0003907410, 0.0000817682, 0.0058252099, 0.2712443471, -0.1965197176, 0.0467960872, 0.0555938073, 0.3369096220, 0.1293810308, -0.0353692733, 0.0993598551, 0.0019777811, 0.1318354011, -0.0613882616, 0.0072263717, -0.0948019624, 0.2168786824, 0.2042424083, -0.2407101244, -0.0042306525, -0.0752865821, -0.0017411239, 0.2083868831, -0.0002617568, 0.0687008426, 0.0801261812, 0.1081972346, 0.2727017701, 0.0826323703, -0.2469699234, 0.0622757785, 0.0377807096, -0.0766386166, -0.1228322759, -0.0735581517, 0.0615511946, -0.1134341136, -0.1270439923, -0.0185107011, 0.0001125023, 0.1767406762, -0.0444651991, -0.2561936080, -0.3332823813, -0.0498523116, 0.0156567190, -0.0992335901, -0.1976526231, 0.2398509085, 0.1593953073, -0.3645269275, -0.0019659456, -0.1628027856, -0.1180344000, -0.2218652070, 0.0001669260, 0.2970630825, -0.1560088992, 0.0044257678, 0.2471464574, -0.0851573944, 0.0004136890, 0.0122134546, 0.0001539564, 0.0004863314, -0.0403242037, -0.1689159423, 0.2400356233, -0.0505046509, 0.0029837519, -0.3422498405, -0.0027359044, 0.2591158450, -0.0589449815, 0.0997430757, 0.0004680921, 0.0008472213, -0.0000309059, 0.3795020580, 0.3408019543, 0.2129862309, 0.0005499934, -0.0761073083, 0.0000170442, -0.1313076317, 0.3186975718, 0.1861420870, -0.0801561549, 0.4221475422, 0.0727774128, -0.1676608473, -0.2108410597, -0.2512952387, 0.0722799897, -0.0689769313, 0.0005384322, -0.0720290020, -0.3318687975, -0.3395535946, -0.2361356765, -0.2155228704, -0.0567079559, -0.2049599439, -0.3123454750, -0.0000565085, -0.0015621956, -0.0001143728, -0.0000751171, -0.0810072497, 0.0000160376, 0.0391700566, 0.0651867986, -0.0001882934, 0.0003654287, -0.0000060977, 0.0000522563, 0.0000001716, -0.1595114917, -0.0001752473, 0.0000402256, 0.0000126413, 0.0719027519, 0.0000620504, -0.1489844024, -0.0001037155, 0.0000595741, 0.0005933513, -0.0000092187, -0.0002363914, 0.2725956142, -0.2146948278, -0.0001172669, -0.1402152181, -0.0323346592, 0.0000966364, 0.0002481939, 0.0003361508, -0.0494202897, 0.3471391201, -0.0047814175, 0.0003445957, -0.0087893289, 0.0148204966, 0.2968877256, -0.0229307655, 0.1040864661, 0.0096283732, 0.1508815587, 0.3189269900, 0.1880675256, 0.5063503385, 0.4084922075, 0.0120849563, -0.1584361941, -0.0731869936, 0.0004407952, 0.2944945097, -0.1324425936, -0.1245749295, 0.0004695724, 0.4255550802, 0.0575974919, 0.2401213944, -0.0246646553, -0.0196213182, -0.0002923537, 0.1004776880, 0.0144636426, 0.2096088529, 0.0869182199, -0.3076503277, 0.3382692933, 0.2623200417, -0.0032505242, -0.0325234719, 0.0074613742, 0.0115236891, -0.0266860276, 0.0000730424, -0.0024256567, -0.0035243540, 0.2433999479, -0.1901292354, -0.0191409346, 0.3523117304, 0.2645372152, 0.2271858454, -0.2738553882, -0.2137018442, -0.1747516990, -0.0519939512, 0.0003986081, 0.0020002134, -0.2104734778, 0.1730838120, -0.1550995111, 0.2871657014, 0.2365125418, 0.0698127672, 0.0071520605, -0.2824172974, 0.1047423333, 0.0001900625, -0.1222123653, -0.2384926975, -0.0027904545, 0.2842511237, -0.2241386771, 0.0534364432, -0.1562645435, -0.2368083596, 0.1609770507, 0.0225734990, 0.2028482854, -0.0002546811, 0.2272005379, -0.1343833655, 0.0662038624, 0.0530681647, 0.3454052508, -0.2239067405, 0.2302038670, 0.2169669420, 0.0002040766, 0.0336597748, 0.2918265462, 0.0715157762, 0.0024319210, -0.0080112498, 0.0788747519, -0.1812468767, 0.1470406353, 0.0486652181, -0.0018172542, 0.0083040567, -0.1223212555, 0.1001407877, -0.0897110552, -0.2510200441, 0.3207653761, 0.0104003008, -0.1511960775, 0.2418251634, -0.0019407624, -0.0060592140, 0.2089053988, -0.1122148782, -0.2896492779, 0.0264043622, 0.2054400593, 0.1552322805, -0.0011365457, 0.1289477944, -0.0772910640, -0.0146659417, 0.0002680342, -0.0809827149, -0.2093035132, -0.0792659819, -0.1230546832, 0.0016581247, 0.1008051708, 0.0450782590, -0.0342087224, 0.0343856923, 0.0188079178, 0.0548699126, -0.0926721171, 0.0315439850, 0.1564361453, 0.0207339562, 0.1947800666, 0.0000921392, 0.0004022068, 0.3649315238, 0.0651068538, 0.3616477549, 0.1311533153, 0.0915952995, 0.3181845546, 0.2794145048, 0.0027004417, 0.0002560254, -0.2360603809, 0.3994574249, 0.0935754105, -0.0273962710, 0.0152358683, 0.4649901688, 0.3255630732, 0.2521818578, 0.0405711718, -0.1647242159, 0.0005745675, 0.5176843405, -0.1193081215, 0.2278617024, 0.1013532057, -0.1152989492, -0.0657956600, 0.0382389240, -0.0456038900, 0.0741148666, 0.2754632831, -0.0394370891, 0.1237549856, -0.1052087620, -0.1332700849, -0.1519370824, 0.0994922593, -0.1292820424, 0.0169489086, 0.2310716212, 0.0239078924, 0.2566265762, -0.0550787747, -0.2864913344, -0.1310598254, 0.0592591427, 0.0001586853, -0.2670947909, 0.1850004643, 0.2225812823, 0.0174229946, 0.2891343832, 0.1202065796, 0.0923291147, -0.0221489854, -0.0609535649, 0.0000210560, -0.1732136756, 0.0089440597, 0.3878041506, -0.0073223263, -0.0119028194, -0.2706190348, 0.0507282205, 0.0792295858, -0.1560726315, 0.0003273151, 0.0004818544, -0.0651900917, 0.1004924178, -0.2694759667, 0.2132039964, 0.1334110647, 0.1184240505, 0.2168160677, -0.0597865842, -0.3335997164, 0.1412533820, 0.0000048272, 0.0156728905, -0.0775204971, -0.3061293662, 0.0233188234, 0.0658909231, -0.0004527588, -0.0000224979, -0.2012431324, 0.2031546831, 0.0545876771, 0.2592082918, -0.2631314099, 0.1825255007, 0.0546380915, 0.0572563000, -0.0810513198, -0.0866553858, 0.3425844312, 0.0126298554, -0.0252094734, 0.0917785391, 0.1195240244, -0.2264161557, 0.2872635424, -0.0117998533, 0.1332423538, 0.1935994178, 0.1265144795, 0.2888664007, 0.2383451462, 0.0650347769, 0.0054711108, 0.0009287299, 0.0002317092, 0.0002171680, 0.3538257182, 0.2840968668, 0.0666284263, -0.0333888009, 0.0088861408, -0.0001333563, -0.0913262367, 0.0000273066, -0.0184518658, -0.1019751132, 0.0000506144, 0.2620068789, 0.2666322887, 0.2273105979, -0.1399914175, -0.0000879766, -0.0236102622, -0.6563371420, -0.0670822188, -0.0985305086, 0.0000157757, 0.2853256464, -0.0001360340, 0.1100289002, -0.1421102434, -0.9450755119, 0.0000350941, -0.0280358531, 0.1380659342, -0.8881303668, 0.0002022456, -0.7142290473, 0.0176654793, 0.0145021621, -0.0905019417, -0.7280911207, -0.4166601598, 0.0191541314, 0.1344868988, -0.2780044377, 0.0909412354, -0.1004700139, -0.1788529605, 0.2151589990, -0.0760558695, 0.3672344089, -0.6179285645, 0.1181784719, -0.1095013618, -0.2200949043, -0.2878226340, -0.1041528732, -0.3253649175, 0.1643766761, 0.3695934415, -0.1727496684, 0.3067370355, -0.5333499312, -0.1992069930, -0.0592569858, -0.0273778625, -0.4977604449, -0.0693482831, 0.1602520645, -0.1994344592, 0.1604023874, 0.0435473099, -0.6938362122, -0.3952150941};
#endif

#endif
